digraph Tree {
node [shape=box, style="filled, rounded", color="black", fontname=helvetica] ;
edge [fontname=helvetica] ;
0 [label="mercyhurst campus update safety <= 0.16\nmse = 1294.56\nsamples = 1814\nvalue = 21.44", fillcolor="#e581390c"] ;
1 [label="shine lakers <= 0.2\nmse = 1216.69\nsamples = 1813\nvalue = 21.21", fillcolor="#e581390b"] ;
0 -> 1 [labeldistance=2.5, labelangle=45, headlabel="True"] ;
2 [label="bells <= 0.07\nmse = 1101.54\nsamples = 1810\nvalue = 20.93", fillcolor="#e581390b"] ;
1 -> 2 ;
3 [label="rt <= 0.03\nmse = 1041.72\nsamples = 1802\nvalue = 20.5", fillcolor="#e581390b"] ;
2 -> 3 ;
4 [label="design <= 0.3\nmse = 1181.25\nsamples = 1449\nvalue = 23.58", fillcolor="#e581390d"] ;
3 -> 4 ;
5 [label="easter <= 0.38\nmse = 1148.23\nsamples = 1448\nvalue = 23.41", fillcolor="#e581390d"] ;
4 -> 5 ;
6 [label="luck today <= 0.29\nmse = 1116.56\nsamples = 1446\nvalue = 23.14", fillcolor="#e581390d"] ;
5 -> 6 ;
7 [label="day today <= 0.28\nmse = 1087.89\nsamples = 1445\nvalue = 22.98", fillcolor="#e581390c"] ;
6 -> 7 ;
8 [label="tree <= 0.27\nmse = 1063.02\nsamples = 1444\nvalue = 22.8", fillcolor="#e581390c"] ;
7 -> 8 ;
9 [label="rank individua <= 0.19\nmse = 1038.71\nsamples = 1442\nvalue = 22.56", fillcolor="#e581390c"] ;
8 -> 9 ;
10 [label="hurstday <= 0.5\nmse = 1014.01\nsamples = 1441\nvalue = 22.46", fillcolor="#e581390c"] ;
9 -> 10 ;
11 [label="set <= 0.29\nmse = 925.26\nsamples = 1436\nvalue = 22.12", fillcolor="#e581390c"] ;
10 -> 11 ;
12 [label="views <= 0.52\nmse = 908.19\nsamples = 1435\nvalue = 22.0", fillcolor="#e581390c"] ;
11 -> 12 ;
13 [label="mse = 888.71\nsamples = 1432\nvalue = 21.85", fillcolor="#e581390c"] ;
12 -> 13 ;
14 [label="mse = 2787.56\nsamples = 3\nvalue = 135.67", fillcolor="#e5813949"] ;
12 -> 14 ;
15 [label="mse = 0.0\nsamples = 1\nvalue = 165.0", fillcolor="#e5813959"] ;
11 -> 15 ;
16 [label="hour_col <= 15.5\nmse = 13900.52\nsamples = 5\nvalue = 85.75", fillcolor="#e581392e"] ;
10 -> 16 ;
17 [label="day_of_week_col <= 3.0\nmse = 31.25\nsamples = 2\nvalue = 2.5", fillcolor="#e5813901"] ;
16 -> 17 ;
18 [label="mse = 0.0\nsamples = 1\nvalue = 15.0", fillcolor="#e5813908"] ;
17 -> 18 ;
19 [label="mse = 0.0\nsamples = 1\nvalue = 0.0", fillcolor="#e5813900"] ;
17 -> 19 ;
20 [label="day_of_week_col <= 1.5\nmse = 13908.67\nsamples = 3\nvalue = 169.0", fillcolor="#e581395b"] ;
16 -> 20 ;
21 [label="mse = 0.0\nsamples = 1\nvalue = 322.0", fillcolor="#e58139ae"] ;
20 -> 21 ;
22 [label="mse = 3306.25\nsamples = 2\nvalue = 92.5", fillcolor="#e5813932"] ;
20 -> 22 ;
23 [label="mse = 0.0\nsamples = 1\nvalue = 263.0", fillcolor="#e581398e"] ;
9 -> 23 ;
24 [label="advised <= 0.18\nmse = 338.56\nsamples = 2\nvalue = 131.8", fillcolor="#e5813947"] ;
8 -> 24 ;
25 [label="mse = 0.0\nsamples = 1\nvalue = 141.0", fillcolor="#e581394c"] ;
24 -> 25 ;
26 [label="mse = 0.0\nsamples = 1\nvalue = 95.0", fillcolor="#e5813933"] ;
24 -> 26 ;
27 [label="mse = 0.0\nsamples = 1\nvalue = 165.0", fillcolor="#e5813959"] ;
7 -> 27 ;
28 [label="mse = 0.0\nsamples = 1\nvalue = 208.0", fillcolor="#e5813970"] ;
6 -> 28 ;
29 [label="bailey <= 0.27\nmse = 174.96\nsamples = 2\nvalue = 148.2", fillcolor="#e5813950"] ;
5 -> 29 ;
30 [label="mse = 0.0\nsamples = 1\nvalue = 132.0", fillcolor="#e5813947"] ;
29 -> 30 ;
31 [label="mse = 0.0\nsamples = 1\nvalue = 159.0", fillcolor="#e5813956"] ;
29 -> 31 ;
32 [label="mse = 0.0\nsamples = 1\nvalue = 222.0", fillcolor="#e5813978"] ;
4 -> 32 ;
33 [label="chris <= 0.13\nmse = 237.85\nsamples = 353\nvalue = 7.41", fillcolor="#e5813904"] ;
3 -> 33 ;
34 [label="world series <= 0.26\nmse = 197.15\nsamples = 352\nvalue = 7.13", fillcolor="#e5813904"] ;
33 -> 34 ;
35 [label="rt new ncaad poll mercyhurst <= 0.14\nmse = 156.54\nsamples = 350\nvalue = 6.6", fillcolor="#e5813904"] ;
34 -> 35 ;
36 [label="hurst home <= 0.24\nmse = 122.82\nsamples = 349\nvalue = 6.35", fillcolor="#e5813903"] ;
35 -> 36 ;
37 [label="rt walk lakers win lakers <= 0.13\nmse = 98.75\nsamples = 348\nvalue = 5.92", fillcolor="#e5813903"] ;
36 -> 37 ;
38 [label="rt snowlike <= 0.31\nmse = 84.4\nsamples = 347\nvalue = 5.76", fillcolor="#e5813903"] ;
37 -> 38 ;
39 [label="rt miss hurst day <= 0.21\nmse = 71.13\nsamples = 346\nvalue = 5.48", fillcolor="#e5813903"] ;
38 -> 39 ;
40 [label="rt love pumpkin love <= 0.15\nmse = 60.94\nsamples = 345\nvalue = 5.28", fillcolor="#e5813903"] ;
39 -> 40 ;
41 [label="point <= 0.42\nmse = 51.39\nsamples = 344\nvalue = 5.09", fillcolor="#e5813903"] ;
40 -> 41 ;
42 [label="mse = 42.83\nsamples = 343\nvalue = 4.9", fillcolor="#e5813903"] ;
41 -> 42 ;
43 [label="mse = 0.0\nsamples = 1\nvalue = 53.0", fillcolor="#e581391d"] ;
41 -> 43 ;
44 [label="mse = 0.0\nsamples = 1\nvalue = 56.0", fillcolor="#e581391e"] ;
40 -> 44 ;
45 [label="mse = 0.0\nsamples = 1\nvalue = 58.0", fillcolor="#e581391f"] ;
39 -> 45 ;
46 [label="mse = 0.0\nsamples = 1\nvalue = 55.0", fillcolor="#e581391e"] ;
38 -> 46 ;
47 [label="mse = 0.0\nsamples = 1\nvalue = 94.0", fillcolor="#e5813933"] ;
37 -> 47 ;
48 [label="mse = 0.0\nsamples = 1\nvalue = 64.0", fillcolor="#e5813923"] ;
36 -> 48 ;
49 [label="mse = 0.0\nsamples = 1\nvalue = 142.0", fillcolor="#e581394d"] ;
35 -> 49 ;
50 [label="going <= 0.12\nmse = 450.19\nsamples = 2\nvalue = 79.25", fillcolor="#e581392b"] ;
34 -> 50 ;
51 [label="mse = 0.0\nsamples = 1\nvalue = 67.0", fillcolor="#e5813924"] ;
50 -> 51 ;
52 [label="mse = 0.0\nsamples = 1\nvalue = 116.0", fillcolor="#e581393f"] ;
50 -> 52 ;
53 [label="mse = 0.0\nsamples = 1\nvalue = 157.0", fillcolor="#e5813955"] ;
33 -> 53 ;
54 [label="tolled <= 0.08\nmse = 4843.39\nsamples = 8\nvalue = 123.33", fillcolor="#e5813943"] ;
2 -> 54 ;
55 [label="day hurstday <= 0.22\nmse = 2489.33\nsamples = 6\nvalue = 92.33", fillcolor="#e5813932"] ;
54 -> 55 ;
56 [label="hour_col <= 16.0\nmse = 1652.98\nsamples = 5\nvalue = 103.62", fillcolor="#e5813938"] ;
55 -> 56 ;
57 [label="cool <= 0.09\nmse = 14.22\nsamples = 2\nvalue = 147.33", fillcolor="#e5813950"] ;
56 -> 57 ;
58 [label="mse = 0.0\nsamples = 1\nvalue = 150.0", fillcolor="#e5813951"] ;
57 -> 58 ;
59 [label="mse = 0.0\nsamples = 1\nvalue = 142.0", fillcolor="#e581394d"] ;
57 -> 59 ;
60 [label="rendition jingle <= 0.15\nmse = 802.24\nsamples = 3\nvalue = 77.4", fillcolor="#e581392a"] ;
56 -> 60 ;
61 [label="laker <= 0.16\nmse = 270.75\nsamples = 2\nvalue = 89.5", fillcolor="#e5813930"] ;
60 -> 61 ;
62 [label="mse = 0.0\nsamples = 1\nvalue = 80.0", fillcolor="#e581392b"] ;
61 -> 62 ;
63 [label="mse = 0.0\nsamples = 1\nvalue = 118.0", fillcolor="#e5813940"] ;
61 -> 63 ;
64 [label="mse = 0.0\nsamples = 1\nvalue = 29.0", fillcolor="#e5813910"] ;
60 -> 64 ;
65 [label="mse = 0.0\nsamples = 1\nvalue = 2.0", fillcolor="#e5813901"] ;
55 -> 65 ;
66 [label="tolled pm merry christmas <= 0.08\nmse = 373.56\nsamples = 2\nvalue = 216.33", fillcolor="#e5813975"] ;
54 -> 66 ;
67 [label="mse = 0.0\nsamples = 1\nvalue = 230.0", fillcolor="#e581397c"] ;
66 -> 67 ;
68 [label="mse = 0.0\nsamples = 1\nvalue = 189.0", fillcolor="#e5813966"] ;
66 -> 68 ;
69 [label="rt rise shine lakers <= 0.16\nmse = 41553.56\nsamples = 3\nvalue = 285.67", fillcolor="#e581399a"] ;
1 -> 69 ;
70 [label="day day classes <= 0.11\nmse = 1980.25\nsamples = 2\nvalue = 427.5", fillcolor="#e58139e7"] ;
69 -> 70 ;
71 [label="mse = 0.0\nsamples = 1\nvalue = 383.0", fillcolor="#e58139cf"] ;
70 -> 71 ;
72 [label="mse = 0.0\nsamples = 1\nvalue = 472.0", fillcolor="#e58139ff"] ;
70 -> 72 ;
73 [label="mse = 0.0\nsamples = 1\nvalue = 2.0", fillcolor="#e5813901"] ;
69 -> 73 ;
74 [label="mse = 0.0\nsamples = 1\nvalue = 358.0", fillcolor="#e58139c1"] ;
0 -> 74 [labeldistance=2.5, labelangle=-45, headlabel="False"] ;
}