digraph Tree {
node [shape=box, style="filled, rounded", color="black", fontname=helvetica] ;
edge [fontname=helvetica] ;
0 [label="rt wish <= 0.16\nmse = 1340.23\nsamples = 2880\nvalue = 21.35", fillcolor="#e581390b"] ;
1 [label="snow <= 0.32\nmse = 1284.88\nsamples = 2878\nvalue = 21.16", fillcolor="#e581390b"] ;
0 -> 1 [labeldistance=2.5, labelangle=45, headlabel="True"] ;
2 [label="wishing <= 0.61\nmse = 1219.8\nsamples = 2868\nvalue = 20.75", fillcolor="#e581390a"] ;
1 -> 2 ;
3 [label="rt <= 0.05\nmse = 1172.14\nsamples = 2867\nvalue = 20.62", fillcolor="#e581390a"] ;
2 -> 3 ;
4 [label="mercyhurst campus update safety <= 0.16\nmse = 1323.05\nsamples = 2330\nvalue = 23.81", fillcolor="#e581390c"] ;
3 -> 4 ;
5 [label="day today <= 0.17\nmse = 1275.64\nsamples = 2329\nvalue = 23.67", fillcolor="#e581390c"] ;
4 -> 5 ;
6 [label="breaking <= 0.29\nmse = 1226.19\nsamples = 2327\nvalue = 23.47", fillcolor="#e581390c"] ;
5 -> 6 ;
7 [label="bells <= 0.14\nmse = 1187.25\nsamples = 2325\nvalue = 23.3", fillcolor="#e581390c"] ;
6 -> 7 ;
8 [label="rank <= 0.19\nmse = 1148.16\nsamples = 2320\nvalue = 23.02", fillcolor="#e581390c"] ;
7 -> 8 ;
9 [label="mercyhurst born shamrock hand <= 0.16\nmse = 1123.81\nsamples = 2319\nvalue = 22.92", fillcolor="#e581390c"] ;
8 -> 9 ;
10 [label="mse = 1100.84\nsamples = 2318\nvalue = 22.82", fillcolor="#e581390c"] ;
9 -> 10 ;
11 [label="mse = 0.0\nsamples = 1\nvalue = 256.0", fillcolor="#e58139a5"] ;
9 -> 11 ;
12 [label="mse = 0.0\nsamples = 1\nvalue = 263.0", fillcolor="#e58139aa"] ;
8 -> 12 ;
13 [label="tolled <= 0.08\nmse = 2778.56\nsamples = 5\nvalue = 151.8", fillcolor="#e5813961"] ;
7 -> 13 ;
14 [label="great <= 0.11\nmse = 651.56\nsamples = 3\nvalue = 113.33", fillcolor="#e5813947"] ;
13 -> 14 ;
15 [label="mse = 144.0\nsamples = 2\nvalue = 130.0", fillcolor="#e5813952"] ;
14 -> 15 ;
16 [label="mse = 0.0\nsamples = 1\nvalue = 80.0", fillcolor="#e5813931"] ;
14 -> 16 ;
17 [label="nationalwalkoutday <= 0.15\nmse = 420.25\nsamples = 2\nvalue = 209.5", fillcolor="#e5813987"] ;
13 -> 17 ;
18 [label="mse = 0.0\nsamples = 1\nvalue = 189.0", fillcolor="#e5813979"] ;
17 -> 18 ;
19 [label="mse = 0.0\nsamples = 1\nvalue = 230.0", fillcolor="#e5813994"] ;
17 -> 19 ;
20 [label="record breaking <= 0.3\nmse = 5041.0\nsamples = 2\nvalue = 227.0", fillcolor="#e5813992"] ;
6 -> 20 ;
21 [label="mse = 0.0\nsamples = 1\nvalue = 156.0", fillcolor="#e5813963"] ;
20 -> 21 ;
22 [label="mse = 0.0\nsamples = 1\nvalue = 298.0", fillcolor="#e58139c1"] ;
20 -> 22 ;
23 [label="hurst day today <= 0.45\nmse = 7310.25\nsamples = 2\nvalue = 250.5", fillcolor="#e58139a2"] ;
5 -> 23 ;
24 [label="mse = 0.0\nsamples = 1\nvalue = 336.0", fillcolor="#e58139da"] ;
23 -> 24 ;
25 [label="mse = 0.0\nsamples = 1\nvalue = 165.0", fillcolor="#e5813969"] ;
23 -> 25 ;
26 [label="mse = 0.0\nsamples = 1\nvalue = 358.0", fillcolor="#e58139e9"] ;
4 -> 26 ;
27 [label="playing <= 0.14\nmse = 281.95\nsamples = 537\nvalue = 6.79", fillcolor="#e5813901"] ;
3 -> 27 ;
28 [label="ncaad <= 0.1\nmse = 199.88\nsamples = 536\nvalue = 6.4", fillcolor="#e5813901"] ;
27 -> 28 ;
29 [label="mercyhurst col <= 0.15\nmse = 149.95\nsamples = 534\nvalue = 5.97", fillcolor="#e5813901"] ;
28 -> 29 ;
30 [label="atlanticregional <= 0.13\nmse = 107.36\nsamples = 533\nvalue = 5.69", fillcolor="#e5813900"] ;
29 -> 30 ;
31 [label="rt olympic medalists <= 0.29\nmse = 70.02\nsamples = 531\nvalue = 5.31", fillcolor="#e5813900"] ;
30 -> 31 ;
32 [label="lakeshow <= 0.31\nmse = 62.0\nsamples = 530\nvalue = 5.19", fillcolor="#e5813900"] ;
31 -> 32 ;
33 [label="mse = 54.88\nsamples = 529\nvalue = 5.07", fillcolor="#e5813900"] ;
32 -> 33 ;
34 [label="mse = 0.0\nsamples = 1\nvalue = 67.0", fillcolor="#e5813929"] ;
32 -> 34 ;
35 [label="mse = 0.0\nsamples = 1\nvalue = 71.0", fillcolor="#e581392b"] ;
31 -> 35 ;
36 [label="college world <= 0.17\nmse = 121.0\nsamples = 2\nvalue = 105.0", fillcolor="#e5813942"] ;
30 -> 36 ;
37 [label="mse = 0.0\nsamples = 1\nvalue = 94.0", fillcolor="#e581393b"] ;
36 -> 37 ;
38 [label="mse = 0.0\nsamples = 1\nvalue = 116.0", fillcolor="#e5813949"] ;
36 -> 38 ;
39 [label="mse = 0.0\nsamples = 1\nvalue = 157.0", fillcolor="#e5813964"] ;
29 -> 39 ;
40 [label="hour_col <= 7.0\nmse = 462.25\nsamples = 2\nvalue = 120.5", fillcolor="#e581394c"] ;
28 -> 40 ;
41 [label="mse = 0.0\nsamples = 1\nvalue = 99.0", fillcolor="#e581393e"] ;
40 -> 41 ;
42 [label="mse = 0.0\nsamples = 1\nvalue = 142.0", fillcolor="#e581395a"] ;
40 -> 42 ;
43 [label="mse = 0.0\nsamples = 1\nvalue = 217.0", fillcolor="#e581398c"] ;
27 -> 43 ;
44 [label="mse = 0.0\nsamples = 1\nvalue = 392.0", fillcolor="#e58139ff"] ;
2 -> 44 ;
45 [label="snow <= 0.37\nmse = 6179.61\nsamples = 10\nvalue = 138.3", fillcolor="#e5813958"] ;
1 -> 45 ;
46 [label="hour_col <= 16.5\nmse = 521.56\nsamples = 3\nvalue = 232.33", fillcolor="#e5813996"] ;
45 -> 46 ;
47 [label="mse = 0.0\nsamples = 1\nvalue = 264.0", fillcolor="#e58139ab"] ;
46 -> 47 ;
48 [label="idea <= 0.19\nmse = 30.25\nsamples = 2\nvalue = 216.5", fillcolor="#e581398b"] ;
46 -> 48 ;
49 [label="mse = 0.0\nsamples = 1\nvalue = 211.0", fillcolor="#e5813988"] ;
48 -> 49 ;
50 [label="mse = 0.0\nsamples = 1\nvalue = 222.0", fillcolor="#e581398f"] ;
48 -> 50 ;
51 [label="students <= 0.13\nmse = 3190.86\nsamples = 7\nvalue = 98.0", fillcolor="#e581393d"] ;
45 -> 51 ;
52 [label="hurstishome <= 0.27\nmse = 1930.67\nsamples = 6\nvalue = 82.0", fillcolor="#e5813933"] ;
51 -> 52 ;
53 [label="snow <= 0.5\nmse = 150.8\nsamples = 5\nvalue = 63.0", fillcolor="#e5813926"] ;
52 -> 53 ;
54 [label="rt snowlike snow <= 0.31\nmse = 0.67\nsamples = 3\nvalue = 54.0", fillcolor="#e5813920"] ;
53 -> 54 ;
55 [label="hurstishome <= 0.13\nmse = 0.25\nsamples = 2\nvalue = 53.5", fillcolor="#e5813920"] ;
54 -> 55 ;
56 [label="mse = 0.0\nsamples = 1\nvalue = 54.0", fillcolor="#e5813920"] ;
55 -> 56 ;
57 [label="mse = 0.0\nsamples = 1\nvalue = 53.0", fillcolor="#e5813920"] ;
55 -> 57 ;
58 [label="mse = 0.0\nsamples = 1\nvalue = 55.0", fillcolor="#e5813921"] ;
54 -> 58 ;
59 [label="campus <= 0.17\nmse = 72.25\nsamples = 2\nvalue = 76.5", fillcolor="#e581392f"] ;
53 -> 59 ;
60 [label="mse = 0.0\nsamples = 1\nvalue = 68.0", fillcolor="#e5813929"] ;
59 -> 60 ;
61 [label="mse = 0.0\nsamples = 1\nvalue = 85.0", fillcolor="#e5813935"] ;
59 -> 61 ;
62 [label="mse = 0.0\nsamples = 1\nvalue = 177.0", fillcolor="#e5813971"] ;
52 -> 62 ;
63 [label="mse = 0.0\nsamples = 1\nvalue = 194.0", fillcolor="#e581397d"] ;
51 -> 63 ;
64 [label="good luck <= 0.11\nmse = 10100.25\nsamples = 2\nvalue = 287.5", fillcolor="#e58139ba"] ;
0 -> 64 [labeldistance=2.5, labelangle=-45, headlabel="False"] ;
65 [label="mse = 0.0\nsamples = 1\nvalue = 388.0", fillcolor="#e58139fc"] ;
64 -> 65 ;
66 [label="mse = 0.0\nsamples = 1\nvalue = 187.0", fillcolor="#e5813978"] ;
64 -> 66 ;
}